digraph Tree {
node [shape=box] ;
0 [label="229603_at <= 6.595\ngini = 0.116\nsamples = 227\nvalue = [14, 213]"] ;
1 [label="202575_at <= 7.222\ngini = 0.019\nsamples = 207\nvalue = [2, 205]"] ;
0 -> 1 [labeldistance=2.5, labelangle=45, headlabel="True"] ;
2 [label="gini = 0.5\nsamples = 2\nvalue = [1, 1]"] ;
1 -> 2 ;
3 [label="gini = 0.01\nsamples = 205\nvalue = [1, 204]"] ;
1 -> 3 ;
4 [label="228100_at <= 9.662\ngini = 0.48\nsamples = 20\nvalue = [12, 8]"] ;
0 -> 4 [labeldistance=2.5, labelangle=-45, headlabel="False"] ;
5 [label="gini = 0.32\nsamples = 10\nvalue = [2, 8]"] ;
4 -> 5 ;
6 [label="gini = 0.0\nsamples = 10\nvalue = [10, 0]"] ;
4 -> 6 ;
}