digraph Tree {
node [shape=box] ;
0 [label="218559_s_at <= 8.254\ngini = 0.115\nsamples = 228\nvalue = [14, 214]"] ;
1 [label="218559_s_at <= 8.236\ngini = 0.432\nsamples = 38\nvalue = [12, 26]"] ;
0 -> 1 [labeldistance=2.5, labelangle=45, headlabel="True"] ;
2 [label="gini = 0.418\nsamples = 37\nvalue = [11, 26]"] ;
1 -> 2 ;
3 [label="gini = 0.0\nsamples = 1\nvalue = [1, 0]"] ;
1 -> 3 ;
4 [label="218559_s_at <= 8.844\ngini = 0.021\nsamples = 190\nvalue = [2, 188]"] ;
0 -> 4 [labeldistance=2.5, labelangle=-45, headlabel="False"] ;
5 [label="gini = 0.188\nsamples = 19\nvalue = [2, 17]"] ;
4 -> 5 ;
6 [label="gini = 0.0\nsamples = 171\nvalue = [0, 171]"] ;
4 -> 6 ;
}