digraph Tree {
node [shape=box] ;
0 [label="218559_s_at <= 7.959\ngini = 0.115\nsamples = 228\nvalue = [14, 214]"] ;
1 [label="218559_s_at <= 7.744\ngini = 0.483\nsamples = 27\nvalue = [11, 16]"] ;
0 -> 1 [labeldistance=2.5, labelangle=45, headlabel="True"] ;
2 [label="gini = 0.388\nsamples = 19\nvalue = [5, 14]"] ;
1 -> 2 ;
3 [label="gini = 0.375\nsamples = 8\nvalue = [6, 2]"] ;
1 -> 3 ;
4 [label="218559_s_at <= 8.852\ngini = 0.029\nsamples = 201\nvalue = [3, 198]"] ;
0 -> 4 [labeldistance=2.5, labelangle=-45, headlabel="False"] ;
5 [label="gini = 0.153\nsamples = 36\nvalue = [3, 33]"] ;
4 -> 5 ;
6 [label="gini = 0.0\nsamples = 165\nvalue = [0, 165]"] ;
4 -> 6 ;
}