digraph Tree {
node [shape=box] ;
0 [label="218559_s_at <= 8.613\ngini = 0.123\nsamples = 228\nvalue = [15, 213]"] ;
1 [label="gini = 0.42\nsamples = 50\nvalue = [15, 35]"] ;
0 -> 1 [labeldistance=2.5, labelangle=45, headlabel="True"] ;
2 [label="gini = 0.0\nsamples = 178\nvalue = [0, 178]"] ;
0 -> 2 [labeldistance=2.5, labelangle=-45, headlabel="False"] ;
}