digraph Tree {
node [shape=box] ;
0 [label="218559_s_at <= 7.958\ngini = 0.123\nsamples = 228\nvalue = [15, 213]"] ;
1 [label="218559_s_at <= 7.744\ngini = 0.493\nsamples = 25\nvalue = [11, 14]"] ;
0 -> 1 [labeldistance=2.5, labelangle=45, headlabel="True"] ;
2 [label="gini = 0.444\nsamples = 18\nvalue = [6, 12]"] ;
1 -> 2 ;
3 [label="gini = 0.408\nsamples = 7\nvalue = [5, 2]"] ;
1 -> 3 ;
4 [label="218559_s_at <= 8.844\ngini = 0.039\nsamples = 203\nvalue = [4, 199]"] ;
0 -> 4 [labeldistance=2.5, labelangle=-45, headlabel="False"] ;
5 [label="gini = 0.231\nsamples = 30\nvalue = [4, 26]"] ;
4 -> 5 ;
6 [label="gini = 0.0\nsamples = 173\nvalue = [0, 173]"] ;
4 -> 6 ;
}