digraph Tree {
node [shape=box] ;
0 [label="209114_at <= 10.113\ngini = 0.116\nsamples = 227\nvalue = [14, 213]"] ;
1 [label="241230_at <= 4.221\ngini = 0.047\nsamples = 207\nvalue = [5, 202]"] ;
0 -> 1 [labeldistance=2.5, labelangle=45, headlabel="True"] ;
2 [label="gini = 0.444\nsamples = 6\nvalue = [2, 4]"] ;
1 -> 2 ;
3 [label="gini = 0.029\nsamples = 201\nvalue = [3, 198]"] ;
1 -> 3 ;
4 [label="218718_at <= 10.2\ngini = 0.495\nsamples = 20\nvalue = [9, 11]"] ;
0 -> 4 [labeldistance=2.5, labelangle=-45, headlabel="False"] ;
5 [label="gini = 0.0\nsamples = 9\nvalue = [0, 9]"] ;
4 -> 5 ;
6 [label="gini = 0.298\nsamples = 11\nvalue = [9, 2]"] ;
4 -> 6 ;
}