digraph Tree {
node [shape=box] ;
0 [label="209114_at <= 10.102\ngini = 0.122\nsamples = 229\nvalue = [15, 214]"] ;
1 [label="205389_s_at <= 2.79\ngini = 0.029\nsamples = 207\nvalue = [3, 204]"] ;
0 -> 1 [labeldistance=2.5, labelangle=45, headlabel="True"] ;
2 [label="gini = 0.0\nsamples = 1\nvalue = [1, 0]"] ;
1 -> 2 ;
3 [label="gini = 0.019\nsamples = 206\nvalue = [2, 204]"] ;
1 -> 3 ;
4 [label="218718_at <= 10.2\ngini = 0.496\nsamples = 22\nvalue = [12, 10]"] ;
0 -> 4 [labeldistance=2.5, labelangle=-45, headlabel="False"] ;
5 [label="gini = 0.18\nsamples = 10\nvalue = [1, 9]"] ;
4 -> 5 ;
6 [label="gini = 0.153\nsamples = 12\nvalue = [11, 1]"] ;
4 -> 6 ;
}